/*!
 * The following copyright notice may not be removed under any circumstances.
 * 
 * Copyright:
 * Copyright (c) WC Fonts, 2005. All rights reserved.
 * 
 * Trademark:
 * WC Wunderbach Bta  DemiBold is a trademark of WC Fonts.
 * 
 * Full name:
 * WCWunderbachBta-DemiBold
 * 
 * Manufacturer:
 * WC Fonts
 * 
 * Designer:
 * WC Fonts
 */
Cufon.registerFont({"w":633,"face":{"font-family":"WC Wunderbach Bta","font-weight":600,"font-stretch":"normal","units-per-em":"1000","panose-1":"2 0 5 4 0 0 0 2 0 3","ascent":"800","descent":"-200","bbox":"-140 -1106 932 276","underline-thickness":"20","underline-position":"-113","stemh":"147","stemv":"147","unicode-range":"U+0020-U+00FF"},"glyphs":{" ":{"w":254},"!":{"d":"90,-823r147,0r0,485r-13,100r-122,0r-12,-100r0,-485xm90,0r0,-132r147,0r0,132r-147,0","w":340},"%":{"d":"26,-698v0,-62,40,-112,96,-127r0,252v-56,-14,-96,-65,-96,-125xm197,-824v52,17,91,66,91,126v0,58,-39,107,-91,124r0,-250xm353,-125v0,-62,40,-112,96,-127r0,252v-56,-14,-96,-65,-96,-125xm524,-251v52,17,91,66,91,126v0,58,-39,107,-91,124r0,-250xm89,0r378,-825r92,0r-379,825r-91,0","w":642},"&":{"d":"377,-817r0,147r-127,0r0,-147r127,0xm84,-446v-54,-47,-44,-131,-44,-225v0,-78,61,-141,137,-146r0,818v-78,-3,-140,-67,-140,-146r0,-199v0,-41,18,-77,47,-102xm506,-578r0,98r94,0r0,147r-350,0r0,-147r109,0r0,-98r147,0xm360,-260r147,0r0,115v0,81,-66,146,-146,146r-111,0r0,-147r110,0r0,-114","w":647},"'":{"d":"57,-578r75,-240r147,0r-75,240r-147,0","w":202},"(":{"d":"127,0r3,-771v0,-80,65,-146,146,-146r92,0r0,147r-91,0v0,19,-2,745,-3,770r90,0r0,147r-90,0v-81,0,-147,-66,-147,-147","w":428},")":{"d":"313,-770r-3,770v0,80,-65,146,-146,146r-92,0r0,-147r91,0v0,-19,2,-744,3,-769r-90,0r0,-147r90,0v81,0,147,66,147,147","w":455},",":{"d":"28,79r75,-240r147,0r-75,240r-147,0","w":331},".":{"d":"56,-156r146,0r0,155r-146,0r0,-155","w":281},"\/":{"d":"-14,96r440,-968r162,0r-441,968r-161,0","w":425},"0":{"d":"441,-819v81,0,144,65,144,146r0,526v0,81,-66,146,-146,146r-76,0r0,-147r77,0r0,-524r-77,0r0,-147r78,0xm216,-148r73,0r0,147r-74,0v-81,0,-144,-65,-144,-146r0,-526v0,-81,66,-146,146,-146r72,0r0,147r-73,0r0,524","w":660},"1":{"d":"320,-147r76,0r0,147r-303,0r0,-147r80,0r0,-529r-82,0r0,-147r229,0r0,676","w":408},"2":{"d":"218,-818r53,0r0,147r-52,0r0,125r-149,0r0,-126v0,-80,67,-146,148,-146xm71,0r0,-160r200,-214r0,216r-11,11r261,0r0,147r-450,0xm546,-671r0,219r-202,215r0,-216r55,-59r0,-159r-55,0r0,-147r56,0v80,0,146,66,146,147","w":587},"3":{"d":"217,-147r53,0r0,147r-55,0v-81,0,-145,-65,-145,-146r0,-126r147,0r0,125xm215,-821r55,0r0,147r-53,0r0,125r-147,0r0,-126v0,-81,64,-146,145,-146xm544,-675r0,210r-60,48r60,47r0,224v0,81,-66,146,-147,146r-53,0r0,-147r53,0r0,-152r-56,-45r-53,0r0,-147r53,0r56,-44r0,-139r-53,0r0,-147r53,0v81,0,147,65,147,146","w":619},"4":{"d":"508,-822r-268,427r-172,0r266,-427r174,0xm50,-175r0,-147r290,0r0,147r-290,0xm414,-488r147,0r0,488r-147,0r0,-488","w":639},"5":{"d":"535,-819r0,147r-184,0r0,-147r184,0xm217,-209r0,63r60,0r0,147r-61,0v-80,0,-146,-66,-146,-146r0,-64r147,0xm70,-673v0,-81,66,-146,146,-146r61,0r0,147r-60,0r0,185r60,0r0,147r-207,0r0,-333xm351,-486r70,0v78,0,141,67,141,145r0,196v0,80,-66,146,-146,146r-65,0r0,-147r64,0r0,-194r-64,0r0,-146","w":619},"6":{"d":"528,-821r0,147r-174,0r0,-147r174,0xm419,-488v78,2,141,67,141,145r0,196v0,80,-65,146,-146,146r-60,0r0,-147r59,0r0,-194r-59,0r0,-146r65,0xm69,-675v0,-81,65,-146,146,-146r66,0r0,147r-65,0r0,185r65,0r0,147r-65,0r0,194r65,0r0,147r-66,0v-81,0,-146,-66,-146,-146r0,-528","w":619},"7":{"d":"429,-598r165,0r-208,335r0,264r-147,0r0,-300r8,-15xm69,-819r564,0r0,143r-2,4r-562,0r0,-147","w":688},"8":{"d":"219,-521r55,41r0,150r-55,42r0,141r55,0r0,147r-56,0v-80,0,-147,-66,-147,-146r0,-213r58,-46r-57,-46r0,-224v0,-81,66,-146,146,-146r56,0r0,147r-55,0r0,153xm346,-480r55,-41r0,-153r-55,0r0,-147r56,0v80,0,147,65,147,146r0,224r-58,46r57,46r0,213v0,80,-66,146,-146,146r-56,0r0,-147r55,0r0,-141r-55,-42r0,-150","w":619},"9":{"d":"211,-480r61,0r0,147r-62,0v-81,0,-146,-65,-146,-146r0,-195v0,-80,65,-146,146,-146r62,0r0,147r-61,0r0,193xm555,-674r0,528v0,81,-65,146,-146,146r-64,0r0,-147r63,0r0,-186r-63,0r0,-147r63,0r0,-193r-63,0r0,-147r64,0v81,0,146,66,146,146xm118,-147r154,0r0,147r-154,0r0,-147","w":619},":":{"d":"77,-328r1,-155r146,0r0,155r-147,0xm78,0r0,-155r146,0r0,155r-146,0","w":320},";":{"d":"102,-293r1,-155r146,0r0,155r-147,0xm28,79r75,-240r147,0r-75,240r-147,0","w":353},"<":{"d":"101,-328r0,-143r470,-321r0,178r-314,215r314,214r0,178","w":630},"=":{"d":"50,-402r0,-147r466,0r0,147r-466,0xm50,-153r0,-147r466,0r0,147r-466,0","w":565},"?":{"d":"216,-673r0,58r-147,0r0,-59v0,-80,65,-146,146,-146r66,0r0,147r-65,0xm200,0r0,-132r147,0r0,132r-147,0xm580,-674r0,190v0,80,-65,146,-146,146r-87,0r0,98r-147,0r0,-99v0,-80,66,-147,146,-147r87,0r0,-187r-79,0r0,-147r80,0v80,0,146,66,146,146","w":680},"@":{"d":"402,-502r0,147r-132,0r0,-30v2,-70,56,-123,132,-117xm599,-241r-124,0r0,-261v71,-3,124,50,124,117r0,144xm270,-198r0,-84r132,0r0,229v-74,-7,-132,-70,-132,-145xm230,-12r172,0r0,147r-173,0v-80,0,-144,-64,-144,-143r0,-530v0,-80,66,-146,146,-146r171,0r0,147r-172,0r0,525xm640,-12r0,-18r147,0v7,96,-59,165,-146,165r-166,0r0,-147r165,0xm643,-537r-168,0r0,-147r169,0v80,0,146,66,146,146r0,340v0,80,-66,146,-146,146r-169,0r0,-147r168,0r0,-338","w":869},"A":{"d":"442,-690r156,420r0,270r-145,0r0,-238r-89,-240xm56,-281r323,-1r0,149r-180,0r0,133r-147,0r0,-270xm402,-796r-163,444r-157,0r175,-467r122,0","w":645},"B":{"d":"258,-820r3,820r-236,0r0,-147r84,0r0,-524r-83,0r0,-149r232,0xm614,-672v0,112,16,197,-51,266v58,67,43,151,43,260v0,80,-65,146,-146,146r-138,0r0,-147r137,0r0,-188r-137,0r0,-148r144,0v0,-38,1,-176,1,-188r-138,0r0,-147r139,0v81,0,146,66,146,146","w":656},"C":{"d":"392,1r-72,0r0,-147r71,0r0,-88r147,0r0,89v0,80,-65,146,-146,146xm169,-146r77,0r0,147r-78,0v-80,0,-143,-66,-143,-147r0,-526v0,-80,65,-146,146,-146r75,0r0,147r-74,0v-1,19,-3,502,-3,525xm540,-587r-147,0r0,-84r-73,0r0,-147r75,0v80,0,145,66,145,147r0,84","w":563},"D":{"d":"434,-818v132,1,240,109,240,243r0,331v0,132,-108,245,-240,245r-98,0r0,-147r98,0v51,0,93,-46,93,-95r0,-334v0,-52,-42,-94,-93,-94r-98,0r0,-149r98,0xm261,-819r0,819r-223,0r0,-146r76,0r0,-525r-76,0r0,-148r223,0","w":707},"E":{"d":"38,-819r224,0r0,819r-226,0r0,-147r89,0r0,-525r-87,0r0,-147xm336,-147r259,0r0,147r-259,0r0,-147xm595,-672r-259,0r0,-147r259,0r0,147xm559,-343r-223,0r0,-147r223,0r0,147","w":642},"F":{"d":"35,-819r225,0r0,819r-137,0r0,-672r-88,0r0,-147xm592,-672r-259,0r0,-147r259,0r0,147xm556,-343r-223,0r0,-147r223,0r0,147"},"G":{"d":"401,-146r0,-133r147,0r0,134v0,80,-66,146,-146,146r-71,0r0,-147r70,0xm181,-671r-2,525r79,0r0,147r-80,0v-81,0,-144,-66,-144,-147r0,-526v0,-80,66,-146,146,-146r78,0r0,147r-77,0xm548,-486r0,146r-255,0r0,-146r255,0xm403,-587r0,-84r-72,0r0,-147r73,0v81,0,144,66,144,147r0,84r-145,0","w":590},"H":{"d":"232,-820r0,820r-146,0r0,-673r-48,0r0,-147r194,0xm456,-821r146,0r0,821r-146,0r0,-339r-149,0r0,-147r149,0r0,-335","w":664},"I":{"d":"387,-674r-90,0r0,527r90,0r0,147r-323,0r0,-147r86,0r0,-527r-86,0r0,-147r323,0r0,147","w":449},"J":{"d":"237,-819r323,0r0,672v0,81,-66,147,-146,147r-78,0r0,-147r77,0r0,-525r-176,0r0,-147xm191,-147r72,0r0,147r-73,0v-81,0,-147,-66,-147,-147r0,-144r148,0r0,144","w":613},"K":{"d":"625,-820r-105,261r-160,0r107,-261r158,0xm513,-486r165,487r-154,0r-119,-348r-87,0r0,-139r195,0xm19,-678r0,-143r225,0r0,821r-147,0r0,-678r-78,0","w":697},"L":{"d":"224,-817r-1,817r-146,0r0,-670r-47,0r0,-147r194,0xm297,-146r268,0r0,146r-268,0r0,-146","w":590},"M":{"d":"435,-104r-205,-404r0,508r-147,0r0,-677r-82,0r0,-142r234,0r282,551xm639,-508r-81,158r-82,-160r155,-309r155,0r0,819r-147,0r0,-508","w":846},"N":{"d":"684,0r-146,0r0,-819r146,0r0,819xm269,-508r0,508r-147,0r0,-678r-82,0r0,-142r237,0r188,373r0,325","w":767},"O":{"d":"412,-818v81,0,144,65,144,146r0,526v0,81,-66,146,-146,146r-149,0r0,-147r150,0r0,-524r-150,0r0,-147r151,0xm188,-818r0,818v-83,1,-146,-64,-146,-146r0,-526v0,-81,65,-146,146,-146","w":600},"P":{"d":"45,-818r231,0r0,818r-147,0r0,-670r-84,0r0,-148xm518,-339r1,2r-169,0r0,-145r137,0r0,-188r-137,0r0,-148r138,0v81,0,146,67,146,147r0,199v0,69,-51,123,-116,133","w":676},"Q":{"d":"202,-147r91,0r0,147r-92,0v-80,0,-144,-66,-144,-147r0,-526v0,-80,66,-146,146,-146r90,0r0,147r-91,0r0,525xm451,-672r-84,0r0,-147r85,0v80,0,144,66,144,147r0,451r-145,0r0,-451xm367,0r0,-147r281,0r0,147r-281,0","w":683},"R":{"d":"520,-261r106,261r-159,0r-106,-261r159,0xm16,-821r231,1r0,820r-147,0r0,-673r-84,0r0,-148xm489,-336r-168,0r0,-149r137,0r0,-188r-137,0r0,-147r138,0v81,0,146,66,146,146r0,202v0,68,-50,136,-116,136","w":663},"S":{"d":"183,-147r74,0r0,147r-74,0v-81,0,-147,-66,-147,-147r0,-63r147,0r0,63xm183,-673r0,186r74,0r0,147r-75,0v-80,0,-146,-66,-146,-147r0,-188v0,-81,66,-146,146,-146r75,0r0,148r-74,0xm405,-673r-75,0r0,-148r76,0v81,0,146,65,146,146r0,59r-147,0r0,-57xm406,-487v81,0,146,64,146,145r0,195v0,81,-65,147,-146,147r-76,0r0,-147r75,0r0,-193r-75,0r0,-147r76,0","w":585},"T":{"d":"174,0r1,-600r146,0r0,600r-147,0xm15,-820r467,0r0,146r-467,0r0,-146","w":501},"U":{"d":"205,-147r76,0r0,147r-77,0v-81,0,-146,-66,-146,-146r0,-674r147,0r0,673xm427,-820r147,0r0,674v0,80,-66,146,-146,146r-74,0r0,-147r73,0r0,-673"},"V":{"d":"572,-566r-143,425r-77,-232r73,-217r0,-228r147,0r0,252xm201,-590r185,566r-8,24r-135,0r-189,-566r0,-252r147,0r0,228","w":630},"W":{"d":"224,-587r191,587r-156,0r-182,-564r0,-254r147,0r0,231xm646,-818r147,0r0,252r-98,412r-88,-265r39,-165r0,-234xm507,-482r155,463r-4,19r-148,0r-158,-482r155,0","w":870},"X":{"d":"56,-276r92,-86r108,100r-53,50r0,213r-147,0r0,-277xm562,-547r-89,83r-107,-100r49,-47r0,-208r147,0r0,272xm205,-611r360,335r0,277r-147,0r0,-213r-360,-335r0,-272r147,0r0,208"},"Y":{"d":"196,-559r204,213r-30,32r0,314r-147,0r0,-314r-175,-187r0,-319r148,0r0,261xm398,-820r146,0r0,319r-94,101r-102,-107r50,-52r0,-261","w":595},"Z":{"d":"523,-673r-473,0r0,-146r473,0r0,146xm518,0r-319,0r94,-147r225,0r0,147xm488,-597r-377,597r-58,0r0,-182r262,-415r173,0","w":575},"`":{"d":"74,-859r-46,-140r147,0r46,140r-147,0","w":246},"a":{"d":"32,-146r-1,-58v0,-81,66,-146,147,-146r64,0r0,147r-63,0r0,56r63,0r0,147r-64,0v-82,0,-144,-65,-146,-146xm128,-402r0,-147r114,0r0,147r-114,0xm316,-549v80,0,147,65,147,146r0,403r-147,0r0,-549","w":501},"b":{"d":"215,-781r0,781v-46,0,-146,-19,-147,-211r0,-423r-48,0r0,-147r195,0xm412,-548v75,0,137,61,137,136r0,266v0,81,-65,146,-146,146r-114,0r0,-147r113,0r0,-254r-113,0r0,-147r123,0","w":593},"c":{"d":"260,-401r0,-147r172,0r0,147r-172,0xm260,-1r0,-147r170,0r0,147r-170,0xm36,-138r-1,-264v1,-81,66,-148,151,-146r0,547v-87,5,-150,-57,-150,-137","w":472},"d":{"d":"323,-783r189,0r0,568v0,190,-101,212,-145,212r0,-632v-12,-3,-30,0,-44,-1r0,-147xm31,-147r0,-266v0,-75,61,-137,137,-137r125,0r0,147r-115,0r0,255r115,0r0,147r-116,0v-81,0,-146,-65,-146,-146","w":555},"e":{"d":"531,-346v0,81,-66,146,-147,146r-123,0r0,-147r123,0r0,-56r-123,0r0,-147r123,0v81,0,147,66,147,146r0,58xm40,-404v0,-80,64,-146,145,-146r0,549v-81,0,-145,-65,-145,-146r0,-257xm261,-146r270,-1v0,81,-66,146,-147,146r-123,0r0,-145","w":567},"f":{"d":"68,-665v0,-80,66,-146,146,-146r179,0r0,147r-178,0r0,664r-147,0r0,-401r-40,0r0,-147r40,0r0,-117xm289,-401r0,-147r103,0r0,147r-103,0","w":423},"g":{"d":"24,-402v0,-80,66,-146,146,-146r115,0r0,147r-114,0r0,253r114,0r0,147r-123,0v-76,0,-138,-61,-138,-135r0,-266xm173,50r0,46r112,0r0,147r-114,0v-79,0,-145,-66,-145,-145r0,-48r147,0xm359,243r0,-791v83,0,147,66,147,150r0,496v0,79,-66,145,-147,145","w":567},"h":{"d":"27,-636r0,-147r193,0r0,783r-147,0r0,-636r-46,0xm417,-549v76,0,137,61,137,136r0,413r-147,0r0,-402r-112,0r0,-147r122,0","w":590},"i":{"d":"36,0r1,-551r146,0r0,551r-147,0xm36,-614r0,-105r147,0r0,105r-147,0","w":218},"j":{"d":"62,-722r189,0r0,108r-189,0r0,-108xm31,52r0,192v-80,0,-150,-66,-150,-146r0,-46r150,0xm61,-549r190,0r0,647v0,80,-65,146,-146,146r0,-646r-44,0r0,-147","w":314},"k":{"d":"215,-781r0,781r-147,0r0,-634r-47,0r0,-147r194,0xm351,-550r207,0r-204,208r200,342r-169,0r-96,-162r0,-325","w":575},"l":{"d":"1,-783r193,0r0,783r-147,0r0,-636r-46,0r0,-147","w":234},"m":{"d":"21,-403r0,-147r194,0r0,549r-147,0r0,-402r-47,0xm648,-550v74,0,137,61,137,136r0,413r-147,0r0,-402r-139,0r0,402r-147,0v0,0,-1,-339,-1,-402r-62,0r0,-147r359,0","w":842},"n":{"d":"400,-549v75,0,137,61,137,136r0,413r-147,0r0,-402r-102,0r0,-147r112,0xm20,-402r0,-147r195,0r0,549r-146,0r0,-402r-49,0","w":578},"o":{"d":"37,-147r0,-255v0,-81,65,-146,146,-146r0,547v-81,0,-146,-66,-146,-146xm382,-548v81,0,146,65,146,146r0,255v0,80,-65,146,-146,146r-125,0r0,-147r124,0r0,-253r-124,0r0,-147r125,0","w":561},"p":{"d":"394,-548v81,0,146,65,146,146r0,264v0,76,-61,137,-137,137r-123,0r0,-147r113,0r0,-253r-113,0r0,-147r114,0xm11,-548r195,0r0,720r-147,0r0,-573r-48,0r0,-147","w":575},"q":{"d":"30,-138r0,-264v0,-81,65,-146,146,-146r115,0r0,147r-114,0r0,253r114,0r0,147r-124,0v-75,0,-137,-62,-137,-137xm365,-548v82,0,146,66,146,149r0,568r-146,0r0,-717","w":553},"r":{"d":"259,-353r0,-175v48,-23,99,-35,144,-35r0,147v-32,0,-94,17,-144,63xm39,0r0,-551r146,0r0,551r-146,0","w":429},"t":{"d":"422,-399r-72,0r0,-147r72,0r0,147xm415,0r-95,0r0,-147r95,0r0,147xm130,-772r146,0r0,772v-81,0,-146,-65,-146,-146r0,-253r-110,0r0,-147r110,0r0,-226","w":461},"u":{"d":"187,-553r-1,552v-80,0,-146,-66,-146,-147r0,-405r147,0xm383,-553r149,0r0,408v0,79,-67,144,-146,144r-126,0r0,-147r123,0r0,-405","w":570},"v":{"d":"531,-288r-122,210r-84,-148r59,-102r0,-221r147,0r0,261xm182,-328r186,328r-165,0r-167,-288r0,-261r146,0r0,221","w":573},"w":{"d":"601,-301r-35,163r-112,-273r0,-139r147,0r0,249xm144,-1r-111,-294r0,-255r147,0r0,228r121,321r-157,0xm317,-547r223,537r-2,9r-140,0r-161,-365"},"x":{"d":"37,-166r73,-63r114,97r-40,34r0,97r-147,0r0,-165xm519,-384r-71,60r-113,-96r37,-32r0,-99r147,0r0,167xm187,-452r335,286r0,165r-147,0r0,-97r-335,-286r0,-167r147,0r0,99","w":555},"\u00a3":{"d":"381,-484r0,144r-334,0r0,-144r334,0xm386,-819v81,0,146,65,146,146r0,57r-147,0r0,-56r-155,0r0,114r-147,0r0,-115v0,-81,65,-146,146,-146r157,0xm230,-266r0,119r285,0r0,147r-468,0r0,-147r36,0r0,-119r147,0","w":591},"\u00a0":{"w":98},"\u00dd":{"d":"196,-559r204,213r-30,32r0,314r-147,0r0,-314r-175,-187r0,-319r148,0r0,261xm398,-820r146,0r0,319r-94,101r-102,-107r50,-52r0,-261xm221,-859r46,-140r147,0r-46,140r-147,0","w":595},"\u00d0":{"d":"336,-147r98,0v51,0,93,-43,93,-94r0,-334v0,-52,-42,-94,-93,-94r-98,0r0,-147r98,0v132,0,240,108,240,241r0,331v0,132,-108,245,-240,245r-98,0r0,-148xm419,-481r0,146r-158,0r0,335r-223,0r0,-146r76,0r0,-189r-162,0r0,-146r162,0r0,-190r-76,0r0,-145r223,0r0,335r158,0","w":707},"\u00c0":{"d":"251,-859r-46,-140r147,0r46,140r-147,0xm442,-690r156,420r0,270r-145,0r0,-238r-89,-240xm56,-281r323,-1r0,149r-180,0r0,133r-147,0r0,-270xm402,-796r-163,444r-157,0r175,-467r122,0","w":654},"\u00c3":{"d":"47,-992r275,0r0,69r277,0r0,61r-339,0r0,-69r-213,0r0,-61xm442,-690r156,420r0,270r-145,0r0,-238r-89,-240xm56,-281r323,-1r0,149r-180,0r0,133r-147,0r0,-270xm402,-796r-163,444r-157,0r175,-467r122,0","w":654},"\u00d5":{"d":"44,-992r278,0r0,69r237,0r0,61r-299,0r0,-69r-216,0r0,-61xm412,-818v81,0,144,65,144,146r0,526v0,81,-66,146,-146,146r-149,0r0,-147r150,0r0,-524r-150,0r0,-147r151,0xm188,-818r0,818v-83,1,-146,-64,-146,-146r0,-526v0,-81,65,-146,146,-146","w":600},"\u00d3":{"d":"221,-859r46,-140r147,0r-46,140r-147,0xm412,-818v80,0,144,63,144,142r0,530v0,81,-66,146,-146,146r-149,0r0,-147r150,0r0,-524r-150,0r0,-147r151,0xm188,-818r0,818v-82,1,-146,-62,-146,-142r0,-530v0,-81,65,-146,146,-146","w":600},"\u00d4":{"d":"442,-994r97,133r-147,0r-90,-123r-90,123r-147,0r97,-133r280,0xm412,-818v80,0,144,63,144,142r0,530v0,81,-66,146,-146,146r-149,0r0,-147r150,0r0,-524r-150,0r0,-147r151,0xm188,-818r0,818v-82,1,-146,-62,-146,-142r0,-530v0,-81,65,-146,146,-146","w":600},"\u00d2":{"d":"251,-859r-46,-140r147,0r46,140r-147,0xm412,-818v80,0,144,63,144,142r0,530v0,81,-66,146,-146,146r-149,0r0,-147r150,0r0,-524r-150,0r0,-147r151,0xm188,-818r0,818v-82,1,-146,-62,-146,-142r0,-530v0,-81,65,-146,146,-146","w":600},"\u00da":{"d":"205,-147r76,0r0,147r-77,0v-81,0,-146,-66,-146,-146r0,-674r147,0r0,673xm427,-820r147,0r0,674v0,80,-66,146,-146,146r-74,0r0,-147r73,0r0,-673xm241,-859r46,-140r147,0r-46,140r-147,0"},"\u00db":{"d":"205,-147r76,0r0,147r-77,0v-81,0,-146,-66,-146,-146r0,-674r147,0r0,673xm427,-820r147,0r0,674v0,80,-66,146,-146,146r-74,0r0,-147r73,0r0,-673xm448,-994r97,133r-147,0r-90,-123r-90,123r-147,0r97,-133r280,0"},"\u00d9":{"d":"205,-147r76,0r0,147r-77,0v-81,0,-146,-66,-146,-146r0,-674r147,0r0,673xm427,-820r147,0r0,674v0,80,-66,146,-146,146r-74,0r0,-147r73,0r0,-673xm251,-859r-46,-140r147,0r46,140r-147,0"},"\u00c2":{"d":"473,-994r97,133r-147,0r-90,-123r-90,123r-147,0r97,-133r280,0xm442,-690r156,420r0,270r-145,0r0,-238r-89,-240xm56,-281r323,-1r0,149r-180,0r0,133r-147,0r0,-270xm402,-796r-163,444r-157,0r175,-467r122,0","w":654},"\u00c1":{"d":"263,-859r46,-140r147,0r-46,140r-147,0xm442,-690r156,420r0,270r-145,0r0,-238r-89,-240xm56,-281r323,-1r0,149r-180,0r0,133r-147,0r0,-270xm402,-796r-163,444r-157,0r175,-467r122,0","w":654},"\u00ca":{"d":"447,-994r97,133r-147,0r-90,-123r-90,123r-147,0r97,-133r280,0xm47,-819r224,0r0,819r-226,0r0,-147r89,0r0,-525r-87,0r0,-147xm345,-147r259,0r0,147r-259,0r0,-147xm603,-672r-258,0r0,-147r258,0r0,147xm567,-343r-222,0r0,-147r222,0r0,147","w":653},"\u00cb":{"d":"49,-819r224,0r0,819r-226,0r0,-147r89,0r0,-525r-87,0r0,-147xm347,-147r259,0r0,147r-259,0r0,-147xm606,-672r-259,0r0,-147r259,0r0,147xm570,-343r-223,0r0,-147r223,0r0,147xm166,-926v0,-30,21,-55,48,-63r0,126v-27,-7,-48,-33,-48,-63xm251,-988v27,8,46,33,46,62v0,29,-19,54,-46,62r0,-124xm354,-926v0,-30,21,-55,49,-63r0,126v-28,-7,-49,-33,-49,-63xm439,-988v27,8,46,33,46,62v0,29,-19,54,-46,62r0,-124","w":653},"\u00c8":{"d":"49,-819r224,0r0,819r-226,0r0,-147r89,0r0,-525r-87,0r0,-147xm347,-147r259,0r0,147r-259,0r0,-147xm606,-672r-259,0r0,-147r259,0r0,147xm570,-343r-223,0r0,-147r223,0r0,147xm251,-859r-46,-140r147,0r46,140r-147,0","w":653},"\u00cd":{"d":"387,-674r-90,0r0,527r90,0r0,147r-323,0r0,-147r86,0r0,-527r-86,0r0,-147r323,0r0,147xm157,-859r46,-140r147,0r-46,140r-147,0","w":449},"\u00ce":{"d":"387,-674r-90,0r0,527r90,0r0,147r-323,0r0,-147r86,0r0,-527r-86,0r0,-147r323,0r0,147xm366,-994r97,133r-147,0r-90,-123r-90,123r-147,0r97,-133r280,0","w":449},"\u00cf":{"d":"387,-674r-90,0r0,527r90,0r0,147r-323,0r0,-147r86,0r0,-527r-86,0r0,-147r323,0r0,147xm69,-926v0,-30,21,-55,48,-63r0,126v-27,-7,-48,-33,-48,-63xm154,-988v27,8,46,33,46,62v0,29,-19,54,-46,62r0,-124xm257,-926v0,-30,21,-55,49,-63r0,126v-28,-7,-49,-33,-49,-63xm342,-988v27,8,46,33,46,62v0,29,-19,54,-46,62r0,-124","w":449},"\u00cc":{"d":"387,-674r-90,0r0,527r90,0r0,147r-323,0r0,-147r86,0r0,-527r-86,0r0,-147r323,0r0,147xm155,-859r-46,-140r147,0r46,140r-147,0","w":449},"\u00c4":{"d":"166,-926v0,-30,21,-55,48,-63r0,126v-27,-7,-48,-33,-48,-63xm251,-988v27,8,46,33,46,62v0,29,-19,54,-46,62r0,-124xm354,-926v0,-30,21,-55,49,-63r0,126v-28,-7,-49,-33,-49,-63xm439,-988v27,8,46,33,46,62v0,29,-19,54,-46,62r0,-124xm442,-690r156,420r0,270r-145,0r0,-238r-89,-240xm56,-281r323,-1r0,149r-180,0r0,133r-147,0r0,-270xm402,-796r-163,444r-157,0r175,-467r122,0","w":654},"\u00c5":{"d":"204,-980v0,-61,40,-111,96,-126r0,251v-56,-14,-96,-65,-96,-125xm374,-1105v52,17,91,66,91,125v0,58,-39,107,-91,124r0,-249xm442,-690r156,420r0,270r-145,0r0,-238r-89,-240xm56,-281r323,-1r0,149r-180,0r0,133r-147,0r0,-270xm402,-796r-163,444r-157,0r175,-467r122,0","w":654},"\u00c7":{"d":"392,-147r0,-88r147,0r0,89v-3,87,-71,154,-168,146r0,55r-21,32r-29,0r0,-234r71,0xm203,87r44,-67r0,67r-44,0xm395,-819v81,0,146,66,146,147r0,84r-147,0r0,-84r-73,0r0,-147r74,0xm170,-147r77,0r0,147r-78,0v-81,0,-144,-66,-144,-146r0,-526v0,-81,66,-147,146,-147r76,0r0,147r-77,0r0,525","w":563},"\u00c9":{"d":"49,-819r224,0r0,819r-226,0r0,-147r89,0r0,-525r-87,0r0,-147xm347,-147r259,0r0,147r-259,0r0,-147xm606,-672r-259,0r0,-147r259,0r0,147xm570,-343r-223,0r0,-147r223,0r0,147xm244,-859r46,-140r147,0r-46,140r-147,0","w":653},"\u00d1":{"d":"717,0r-146,0r0,-819r146,0r0,819xm302,-508r0,508r-147,0r0,-678r-82,0r0,-142r237,0r188,373r0,325xm160,-992r278,0r0,69r277,0r0,61r-339,0r0,-69r-216,0r0,-61","w":800},"\u00d6":{"d":"145,-926v0,-30,21,-55,48,-63r0,126v-27,-7,-48,-33,-48,-63xm230,-988v27,8,46,33,46,62v0,29,-19,54,-46,62r0,-124xm333,-926v0,-30,21,-55,49,-63r0,126v-28,-7,-49,-33,-49,-63xm418,-988v27,8,46,33,46,62v0,29,-19,54,-46,62r0,-124xm412,-818v81,0,144,65,144,146r0,526v0,81,-66,146,-146,146r-149,0r0,-147r150,0r0,-524r-150,0r0,-147r151,0xm188,-818r0,818v-83,1,-146,-64,-146,-146r0,-526v0,-81,65,-146,146,-146","w":600},"\u00dc":{"d":"205,-147r76,0r0,147r-77,0v-81,0,-146,-66,-146,-146r0,-674r147,0r0,673xm427,-820r147,0r0,674v0,80,-66,146,-146,146r-74,0r0,-147r73,0r0,-673xm166,-926v0,-30,21,-55,48,-63r0,126v-27,-7,-48,-33,-48,-63xm251,-988v27,8,46,33,46,62v0,29,-19,54,-46,62r0,-124xm354,-926v0,-30,21,-55,49,-63r0,126v-28,-7,-49,-33,-49,-63xm439,-988v27,8,46,33,46,62v0,29,-19,54,-46,62r0,-124"},">":{"d":"532,-472r0,143r-470,321r0,-178r314,-215r-314,-214r0,-178","w":591},"\u00d8":{"d":"641,-846r-348,762r0,-354r106,-234r-105,0r0,-148r174,0r12,-26r161,0xm220,-819r1,844r-127,0r-10,-4r30,-66v-26,-26,-40,-63,-40,-102r0,-526v0,-80,66,-146,146,-146xm441,-147r0,-119r147,-323r0,444v0,79,-66,145,-145,145r-124,0r69,-147r53,0","w":660},"{":{"d":"233,-387r39,47r0,339r89,0r0,147r-90,0v-81,0,-146,-65,-146,-146r0,-286r-82,-99r83,-104v0,-63,1,-282,1,-282v0,-81,66,-146,146,-146r92,0r0,147r-92,0r0,333","w":441},"|":{"d":"51,96r0,-968r84,0r0,968r-84,0","w":183},"}":{"d":"141,-338r39,-47r-40,-50r0,-333r-92,0r0,-147r92,0v80,0,146,65,146,146v0,0,1,219,1,282r83,104r-82,99r0,286v0,81,-65,146,-146,146r-90,0r0,-147r89,0r0,-339","w":447},"\u00ae":{"d":"252,-582r26,63r-38,0r-26,-63r38,0xm129,-719r56,1r0,199r-35,0r0,-164r-21,0r0,-36xm273,-683v0,38,6,83,-28,83v-14,0,-30,1,-42,-1r0,-36r34,0r0,-46r-34,0r0,-35v46,0,70,1,70,35xm103,-486r86,0r0,73r-86,0v-41,0,-72,-33,-72,-73r0,-264v0,-40,32,-73,73,-73r85,0r0,74r-86,0r0,263xm309,-486r0,-9r73,0v3,48,-29,82,-73,82r-83,0r0,-73r83,0xm311,-506r-1,-243r-84,0r0,-74r84,0v40,0,73,32,73,71r2,2r0,128v0,68,-10,116,-74,116","w":411},"\u00a9":{"d":"268,-574v5,41,-13,63,-53,58r0,-36r17,0r0,-22r36,0xm177,-552r19,0r0,36v-31,4,-55,-9,-55,-36r0,-102v-1,-43,10,-68,55,-62r0,36r-18,0v0,4,0,122,-1,128xm268,-660r-33,0v0,0,-2,-18,-2,-20r-18,0r0,-36v39,-4,58,15,53,56xm103,-486r86,0r0,73r-86,0v-41,0,-72,-33,-72,-73r0,-264v0,-40,33,-73,73,-73r85,0r0,74r-86,0r0,263xm309,-486r0,-9r73,0v3,48,-29,82,-73,82r-83,0r0,-73r83,0xm311,-506r-1,-243r-84,0r0,-74r84,0v41,0,75,33,75,73v0,98,26,250,-74,244","w":411},"\\":{"d":"443,96r-440,-968r161,0r441,968r-162,0","w":609},"*":{"d":"310,-761r23,70r-87,29r53,74r-60,43r-53,-74r-55,74r-60,-43r55,-74r-87,-30r22,-69r87,28r0,-91r74,0r0,91","w":369},"#":{"d":"305,-468r-39,0r0,117r39,0r0,74r-39,0r0,74r-74,0r0,-74r-9,0r0,-74r9,0r0,-117r-9,0r0,-73r10,0r0,-72r73,0r0,72r39,0r0,73xm136,-351r10,0r0,74r-10,0r0,74r-73,0r0,-74r-40,0r0,-74r40,0r0,-117r-40,0r0,-73r40,0r0,-72r73,0r0,72r10,0r0,73r-10,0r0,117","w":330},"+":{"d":"485,-490r0,147r-161,0r0,183r-147,0r0,-183r-155,0r0,-147r155,0r0,-181r147,0r0,181r161,0","w":510},"-":{"d":"388,-489r0,147r-368,0r0,-147r368,0","w":411},"\u00d7":{"d":"472,-496r-113,114r112,112r-104,105r-113,-113r-110,110r-104,-104r110,-110r-111,-111r105,-104r110,110r114,-113","w":510},"\u00bf":{"d":"432,-147r0,-58r147,0r0,59v0,80,-65,146,-146,146r-66,0r0,-147r65,0xm448,-820r0,132r-147,0r0,-132r147,0xm68,-146r0,-190v0,-80,65,-146,146,-146r87,0r0,-98r147,0r0,99v0,80,-66,147,-146,147r-87,0r0,187r79,0r0,147r-80,0v-80,0,-146,-66,-146,-146","w":680},"\u00a1":{"d":"238,-1r-147,0r0,-481r13,-100r122,0r12,100r0,481xm238,-820r0,132r-147,0r0,-132r147,0","w":340},"\u00bd":{"d":"56,0r378,-825r92,0r-379,825r-91,0xm475,-410r27,0r0,74r-26,0r0,63r-74,0r0,-64v0,-40,33,-73,73,-73xm402,0r0,-80r100,-107r0,108r-6,5r131,0r0,74r-225,0xm640,-337r0,109r-101,109r0,-108r27,-30r0,-79r-27,0r0,-74r28,0v40,0,73,33,73,73xm143,-489r38,0r0,73r-152,0r0,-73r40,0r0,-265r-41,0r0,-74r115,0r0,339","w":701},"\u00bc":{"d":"55,0r379,-825r92,0r-379,825r-92,0xm544,0r0,-245r74,0r0,245r-74,0xm362,-88r0,-96r143,-228r87,0r-157,251r73,0r0,73r-146,0xm143,-489r38,0r0,73r-152,0r0,-73r40,0r0,-265r-41,0r0,-74r115,0r0,339","w":701},"\u00be":{"d":"89,0r378,-825r92,0r-379,825r-91,0xm558,0r0,-245r74,0r0,245r-74,0xm376,-88r0,-96r143,-228r87,0r-157,251r73,0r0,73r-146,0xm93,-492r26,0r0,74v-59,7,-100,-23,-100,-73r0,-63r74,0r0,62xm92,-829r27,0r0,73r-26,0r0,63r-74,0r0,-63v0,-41,33,-73,73,-73xm257,-756r0,105r-30,24r30,24r0,112v0,40,-33,73,-73,73r-27,0r0,-74r26,0r0,-76r-27,-22r-28,0r0,-74r28,0r27,-22r0,-70r-26,0r0,-73v59,-7,100,22,100,73","w":701},"\u00b3":{"d":"104,-492r26,0r0,74v-59,7,-100,-23,-100,-73r0,-63r74,0r0,62xm103,-829r27,0r0,73r-26,0r0,63r-74,0r0,-63v0,-41,33,-73,73,-73xm268,-756r0,105r-30,24r30,24r0,112v0,40,-33,73,-73,73r-27,0r0,-74r26,0r0,-76r-27,-22r-28,0r0,-74r28,0r27,-22r0,-70r-26,0r0,-73v59,-7,100,22,100,73","w":300},"\u00b2":{"d":"103,-825r27,0r0,74r-26,0r0,63r-74,0r0,-64v0,-40,33,-73,73,-73xm30,-415r0,-80r100,-107r0,108r-6,5r131,0r0,74r-225,0xm268,-752r0,109r-101,109r0,-108r27,-30r0,-79r-27,0r0,-74r28,0v40,0,73,33,73,73","w":300},"\u00b9":{"d":"143,-489r38,0r0,73r-152,0r0,-73r40,0r0,-265r-41,0r0,-74r115,0r0,339","w":213},"\"":{"d":"20,-823r147,0r0,143r-13,100r-122,0r-12,-100r0,-143xm208,-823r147,0r0,143r-13,100r-122,0r-12,-100r0,-143","w":395},"\u00de":{"d":"334,-630v81,0,144,65,144,146r0,242v0,81,-66,146,-146,146r-76,0r0,-147r77,0r0,-240r-77,0r0,-147r78,0xm52,-818r146,0r0,818r-146,0r0,-818","w":525},"\u00fe":{"d":"334,-555v81,0,144,65,144,146r0,167v0,81,-66,146,-146,146r-76,0r0,-147r77,0r0,-165r-77,0r0,-147r78,0xm52,-684r146,0r0,684r-146,0r0,-684","w":525},"_":{"d":"549,129r0,147r-529,0r0,-147r529,0","w":570},"\u00a6":{"d":"138,-872r0,400r-84,0r0,-400r84,0xm54,96r0,-404r84,0r0,404r-84,0","w":183},"\u00fd":{"d":"224,-641r40,-126r147,0r-40,126r-147,0xm184,-549v0,0,-2,384,-3,403r111,0r0,147r-111,0v-79,0,-144,-65,-144,-146r0,-404r147,0xm366,245r1,-794r147,0r0,648v0,81,-66,147,-148,146xm181,51r0,47r111,0r0,147r-111,0v-81,0,-147,-66,-147,-146r0,-48r147,0","w":549},"^":{"d":"18,-598r97,-133r279,0r97,133r-147,0r-90,-123r-90,123r-146,0","w":516},"\u00e1":{"d":"204,-641r40,-126r147,0r-40,126r-147,0xm32,-146r-1,-58v0,-81,66,-146,147,-146r64,0r0,147r-63,0r0,56r63,0r0,147r-64,0v-82,0,-144,-65,-146,-146xm128,-402r0,-147r114,0r0,147r-114,0xm316,-549v80,0,147,65,147,146r0,403r-147,0r0,-549","w":501},"\u00e0":{"d":"223,-641r-40,-126r147,0r40,126r-147,0xm32,-146r-1,-58v0,-81,66,-146,147,-146r64,0r0,147r-63,0r0,56r63,0r0,147r-64,0v-82,0,-144,-65,-146,-146xm128,-402r0,-147r114,0r0,147r-114,0xm316,-549v80,0,147,65,147,146r0,403r-147,0r0,-549","w":501},"\u00e2":{"d":"390,-774r97,133r-147,0r-90,-123r-90,123r-147,0r97,-133r280,0xm32,-146r-1,-58v0,-81,66,-146,147,-146r64,0r0,147r-63,0r0,56r63,0r0,147r-64,0v-82,0,-144,-65,-146,-146xm128,-402r0,-147r114,0r0,147r-114,0xm316,-549v80,0,147,65,147,146r0,403r-147,0r0,-549","w":501},"\u00e4":{"d":"108,-703v0,-30,21,-55,48,-63r0,126v-27,-7,-48,-33,-48,-63xm193,-765v27,8,46,33,46,62v0,29,-19,54,-46,62r0,-124xm296,-703v0,-30,21,-55,49,-63r0,126v-28,-7,-49,-33,-49,-63xm381,-765v27,8,46,33,46,62v0,29,-19,54,-46,62r0,-124xm32,-146r-1,-58v0,-81,66,-146,147,-146r64,0r0,147r-63,0r0,56r63,0r0,147r-64,0v-82,0,-144,-65,-146,-146xm128,-402r0,-147r114,0r0,147r-114,0xm316,-549v80,0,147,65,147,146r0,403r-147,0r0,-549","w":501},"\u00e3":{"d":"129,-771r168,0r0,69r167,0r0,61r-229,0r0,-69r-106,0r0,-61xm32,-146r-1,-58v0,-81,66,-146,147,-146r64,0r0,147r-63,0r0,56r63,0r0,147r-64,0v-82,0,-144,-65,-146,-146xm128,-402r0,-147r114,0r0,147r-114,0xm316,-549v80,0,147,65,147,146r0,403r-147,0r0,-549","w":501},"\u00e5":{"d":"214,-703v0,-30,21,-55,48,-63r0,126v-27,-7,-48,-33,-48,-63xm299,-765v27,8,46,33,46,62v0,29,-19,54,-46,62r0,-124xm32,-146r-1,-58v0,-81,66,-146,147,-146r64,0r0,147r-63,0r0,56r63,0r0,147r-64,0v-82,0,-144,-65,-146,-146xm128,-402r0,-147r114,0r0,147r-114,0xm316,-549v80,0,147,65,147,146r0,403r-147,0r0,-549","w":501},"\u00e9":{"d":"209,-641r40,-126r147,0r-40,126r-147,0xm531,-346v0,81,-66,146,-147,146r-123,0r0,-147r123,0r0,-56r-123,0r0,-147r123,0v81,0,147,66,147,146r0,58xm40,-404v0,-80,64,-146,145,-146r0,549v-81,0,-145,-65,-145,-146r0,-257xm261,-146r270,-1v0,81,-66,146,-147,146r-123,0r0,-145","w":567},"\u00e8":{"d":"223,-641r-40,-126r147,0r40,126r-147,0xm531,-346v0,81,-66,146,-147,146r-123,0r0,-147r123,0r0,-56r-123,0r0,-147r123,0v81,0,147,66,147,146r0,58xm40,-404v0,-80,64,-146,145,-146r0,549v-81,0,-145,-65,-145,-146r0,-257xm261,-146r270,-1v0,81,-66,146,-147,146r-123,0r0,-145","w":567},"\u00ea":{"d":"424,-774r97,133r-147,0r-90,-123r-90,123r-147,0r97,-133r280,0xm531,-346v0,81,-66,146,-147,146r-123,0r0,-147r123,0r0,-56r-123,0r0,-147r123,0v81,0,147,66,147,146r0,58xm40,-404v0,-80,64,-146,145,-146r0,549v-81,0,-145,-65,-145,-146r0,-257xm261,-146r270,-1v0,81,-66,146,-147,146r-123,0r0,-145","w":567},"\u00eb":{"d":"129,-703v0,-30,21,-55,48,-63r0,126v-27,-7,-48,-33,-48,-63xm214,-765v27,8,46,33,46,62v0,29,-19,54,-46,62r0,-124xm317,-703v0,-30,21,-55,49,-63r0,126v-28,-7,-49,-33,-49,-63xm402,-765v27,8,46,33,46,62v0,29,-19,54,-46,62r0,-124xm531,-346v0,81,-66,146,-147,146r-123,0r0,-147r123,0r0,-56r-123,0r0,-147r123,0v81,0,147,66,147,146r0,58xm40,-404v0,-80,64,-146,145,-146r0,549v-81,0,-145,-65,-145,-146r0,-257xm261,-146r270,-1v0,81,-66,146,-147,146r-123,0r0,-145","w":567},"\u00fc":{"d":"40,-551r146,0r0,552v-80,0,-146,-66,-146,-147r0,-405xm384,-551r148,0r0,406v0,80,-66,146,-146,146r-126,0r0,-147r124,0r0,-405xm129,-703v0,-30,21,-55,48,-63r0,126v-27,-7,-48,-33,-48,-63xm214,-765v27,8,46,33,46,62v0,29,-19,54,-46,62r0,-124xm317,-703v0,-30,21,-55,49,-63r0,126v-28,-7,-49,-33,-49,-63xm402,-765v27,8,46,33,46,62v0,29,-19,54,-46,62r0,-124","w":570},"\u00fa":{"d":"40,-551r147,0v0,0,-1,17,-1,552v-80,0,-146,-66,-146,-147r0,-405xm384,-551r148,0r0,406v0,80,-66,146,-146,146r-126,0r0,-147r124,0r0,-405xm224,-641r40,-126r147,0r-40,126r-147,0","w":570},"\u00f9":{"d":"40,-551r146,0r0,552v-80,0,-146,-66,-146,-147r0,-405xm384,-551r148,0r0,406v0,80,-66,146,-146,146r-126,0r0,-147r124,0r0,-405xm208,-641r-40,-126r147,0r40,126r-147,0","w":570},"\u00fb":{"d":"40,-551r146,0r0,552v-80,0,-146,-66,-146,-147r0,-405xm384,-551r148,0r0,406v0,80,-66,146,-146,146r-126,0r0,-147r124,0r0,-405xm420,-774r97,133r-147,0r-90,-123r-90,123r-147,0r97,-133r280,0","w":570},"\u00ed":{"d":"36,0r1,-551r146,0r0,551r-147,0xm39,-641r40,-126r147,0r-40,126r-147,0","w":218},"\u00ec":{"d":"36,0r1,-551r146,0r0,551r-147,0xm39,-641r-40,-126r147,0r40,126r-147,0","w":218},"\u00ee":{"d":"36,0r1,-551r146,0r0,551r-147,0xm249,-774r97,133r-147,0r-90,-123r-90,123r-147,0r97,-133r280,0","w":218},"\u00ef":{"d":"36,0r1,-551r146,0r0,551r-147,0xm-34,-703v0,-30,21,-55,48,-63r0,126v-27,-7,-48,-33,-48,-63xm51,-765v27,8,46,33,46,62v0,29,-19,54,-46,62r0,-124xm154,-703v0,-30,21,-55,49,-63r0,126v-28,-7,-49,-33,-49,-63xm239,-765v27,8,46,33,46,62v0,29,-19,54,-46,62r0,-124","w":218},"\u00f3":{"d":"37,-147r0,-255v0,-81,65,-146,146,-146r0,547v-81,0,-146,-66,-146,-146xm382,-548v81,0,146,65,146,146r0,255v0,80,-65,146,-146,146r-125,0r0,-147r124,0r0,-253r-124,0r0,-147r125,0xm191,-641r40,-126r147,0r-40,126r-147,0","w":561},"\u00f2":{"d":"37,-147r0,-255v0,-81,65,-146,146,-146r0,547v-81,0,-146,-66,-146,-146xm382,-548v81,0,146,65,146,146r0,255v0,80,-65,146,-146,146r-125,0r0,-147r124,0r0,-253r-124,0r0,-147r125,0xm227,-641r-40,-126r147,0r40,126r-147,0","w":561},"\u00f4":{"d":"37,-147r0,-255v0,-81,65,-146,146,-146r0,547v-81,0,-146,-66,-146,-146xm382,-548v81,0,146,65,146,146r0,255v0,80,-65,146,-146,146r-125,0r0,-147r124,0r0,-253r-124,0r0,-147r125,0xm423,-774r97,133r-147,0r-90,-123r-90,123r-147,0r97,-133r280,0","w":561},"\u00f6":{"d":"37,-147r0,-255v0,-81,65,-146,146,-146r0,547v-81,0,-146,-66,-146,-146xm382,-548v81,0,146,65,146,146r0,255v0,80,-65,146,-146,146r-125,0r0,-147r124,0r0,-253r-124,0r0,-147r125,0xm118,-703v0,-30,21,-55,48,-63r0,126v-27,-7,-48,-33,-48,-63xm203,-765v27,8,46,33,46,62v0,29,-19,54,-46,62r0,-124xm306,-703v0,-30,21,-55,49,-63r0,126v-28,-7,-49,-33,-49,-63xm391,-765v27,8,46,33,46,62v0,29,-19,54,-46,62r0,-124","w":561},"s":{"d":"381,-345v80,0,146,66,146,146r0,53v0,80,-66,146,-146,146r-126,0r0,-148r125,0r0,-50r-125,0r0,-147r126,0xm35,-401v0,-81,66,-147,146,-147r0,350v-80,0,-146,-66,-146,-147r0,-56xm381,-548v80,0,146,66,146,147r-272,0r0,-147r126,0xm181,0v-80,0,-146,-66,-146,-146r146,0r0,146","w":558},"z":{"d":"312,-547r-147,147r-119,0r0,-147r266,0xm417,-547r42,0r0,164r-384,382r-28,0r0,-178xm179,-1r147,-147r130,0r0,147r-277,0","w":489},"y":{"d":"184,-549v0,0,-2,384,-3,403r111,0r0,147r-111,0v-80,0,-144,-65,-144,-146r0,-404r147,0xm366,245r1,-794r147,0r0,648v0,81,-66,147,-148,146xm181,51r0,47r111,0r0,147r-111,0v-81,0,-147,-66,-147,-146r0,-48r147,0","w":549},"\u00f1":{"d":"400,-549v75,0,137,61,137,136r0,413r-147,0r0,-402r-102,0r0,-147r112,0xm20,-402r0,-147r195,0r0,549r-146,0r0,-402r-49,0xm109,-771r168,0r0,69r167,0r0,61r-229,0r0,-69r-106,0r0,-61","w":578},"\u00f5":{"d":"37,-147r0,-255v0,-81,65,-146,146,-146r0,547v-81,0,-146,-66,-146,-146xm382,-548v81,0,146,65,146,146r0,255v0,80,-65,146,-146,146r-125,0r0,-147r124,0r0,-253r-124,0r0,-147r125,0xm129,-771r168,0r0,69r167,0r0,61r-229,0r0,-69r-106,0r0,-61","w":561},"\u00a5":{"d":"400,-345r123,0r0,84r-153,0r0,50r153,0r0,84r-153,0r0,127r-147,0r0,-127r-155,0r0,-84r155,0r0,-50r-155,0r0,-84r125,0r-145,-156r0,-319r148,0r0,262xm398,-820r146,0r0,319r-94,101r-102,-106r50,-52r0,-262","w":595},"\u00ff":{"d":"118,-703v0,-30,21,-55,48,-63r0,126v-27,-7,-48,-33,-48,-63xm203,-765v27,8,46,33,46,62v0,29,-19,54,-46,62r0,-124xm306,-703v0,-30,21,-55,49,-63r0,126v-28,-7,-49,-33,-49,-63xm391,-765v27,8,46,33,46,62v0,29,-19,54,-46,62r0,-124xm184,-549v0,0,-2,384,-3,403r111,0r0,147r-111,0v-80,0,-144,-65,-144,-146r0,-404r147,0xm366,245r1,-794r147,0r0,648v0,81,-66,147,-148,146xm181,51r0,47r111,0r0,147r-111,0v-81,0,-147,-66,-147,-146r0,-48r147,0","w":549},"\u00b5":{"d":"40,-551r190,0r0,629v0,80,-65,146,-146,146r0,-628r-44,0r0,-147xm574,-551r1,406v0,80,-66,146,-146,146r-126,0r0,-147r124,0r0,-405r147,0xm-140,30r150,0r0,194v-80,0,-150,-66,-150,-146r0,-48","w":613},"\u00f0":{"d":"70,-342v0,-78,63,-145,141,-145r65,0r0,146r-59,0r0,194r59,0r0,147r-60,0v-81,0,-146,-66,-146,-146r0,-196xm102,-673r0,-147r174,0r0,191r-120,69r0,-113r-54,0xm523,-772r-174,101r0,-169r139,-80r0,100xm557,-710v3,12,4,24,4,36r0,528v0,80,-65,146,-146,146r-66,0r0,-147r65,0r0,-194r-65,0r0,-147r65,0r0,-139","w":618},"$":{"d":"334,56r0,-203r75,0r0,-193r-75,0r0,-147r76,0v81,0,146,64,146,145r0,195v0,82,-65,148,-148,147r0,56r-74,0xm187,-210r0,63r74,0r0,147r-74,0v-81,0,-147,-66,-147,-147r0,-63r147,0xm410,-821v81,0,146,65,146,146r0,59r-147,0r0,-57r-75,0r0,-148r76,0xm261,-880r0,207r-74,0r0,186r74,0r0,147r-75,0v-80,0,-146,-66,-146,-147r0,-188v0,-81,66,-146,147,-146r0,-59r74,0","w":585},"\u00e7":{"d":"262,-147r170,0r0,147r-120,0r0,55r-21,32r-29,0r0,-234xm188,87r-44,0r44,-67r0,67xm38,-137r-1,-264v1,-81,66,-148,151,-146r0,547v-87,5,-150,-57,-150,-137xm262,-547r172,0r0,147r-172,0r0,-147","w":472},"\u00b4":{"d":"28,-859r46,-140r147,0r-46,140r-147,0","w":246},"\u00ab":{"d":"167,-526r-124,90r123,90r0,147r-133,-97r0,-280r134,-97r0,147xm354,-526r-123,90r123,90r0,147r-133,-97r0,-280r133,-97r0,147","w":411},"\u00bb":{"d":"244,-346r124,-90r-123,-90r0,-147r133,97r0,280r-134,97r0,-147xm57,-346r123,-90r-123,-90r0,-147r133,97r0,280r-133,97r0,-147","w":411},"\u00b8":{"d":"262,0r50,0r0,55r-21,32r-29,0r0,-87xm188,87r-44,0r44,-67r0,67","w":472},"[":{"d":"127,0r3,-771v0,-80,65,-146,146,-146r92,0r0,147r-91,0v0,19,-2,745,-3,770r90,0r0,147r-90,0v-81,0,-147,-66,-147,-147","w":428},"]":{"d":"313,-770r-3,770v0,80,-65,146,-146,146r-92,0r0,-147r94,0r0,-769r-90,0r0,-147r90,0v81,0,147,66,147,147","w":455}}});
